16 16
topic_0 -0.2334815 0.07819216 0.06517298 -0.26641548 -0.17724249 -0.05926261 0.102994844 -0.081443936 -0.062690556 0.011603818 0.10287562 -0.00024016625 0.23777552 -0.2686505 -0.080604255 -0.13122217
topic_1 -0.16203701 -0.20496538 -0.026079282 -0.19760379 0.07835092 -0.016559098 -0.052669127 -0.01621631 0.060041983 0.13712251 -0.09091328 -0.19518839 -0.13738538 0.20568867 -0.27558783 -0.16288227
topic_2 -0.25035107 0.023312217 0.17322169 -0.004580524 -0.14744899 0.05138477 0.28196543 -0.1902696 0.075142 -0.16154672 -0.18674113 -0.012430109 -0.07541029 0.25243866 0.20629546 0.09349634
topic_3 -0.15698503 -0.161371 -0.10988717 0.2155538 -0.04773815 0.24466948 -0.018612001 0.12261434 0.0038313614 -0.25867733 -0.050727952 -0.09915747 -0.0031277929 -0.15780884 -0.011017846 -0.18614867
topic_4 0.20214795 -0.019373683 -0.19845738 -0.27495563 0.15324765 0.2972446 0.2343426 -0.048147827 0.2576915 -0.05474292 -0.014084584 0.07726674 0.06124126 -0.042836443 -0.00019987431 0.020258525
topic_5 0.12586023 0.16325487 0.21763995 0.030272383 -0.16626355 0.060492888 0.18198489 0.28579926 0.10006479 0.041250486 0.06486554 -0.047313884 -0.13031988 0.022159686 -0.14259484 -0.10474356
topic_6 -0.008429153 -0.040772665 0.031433936 0.08398566 0.24050997 0.08024105 0.2944856 0.029376714 -0.37903863 0.19666462 -0.08431325 0.17709468 0.027032796 0.03505779 0.043837927 -0.22985853
topic_7 0.074118 -0.21707602 -0.14733195 -0.17129914 -0.17142479 -0.007091032 0.0980322 0.12677135 -0.20331752 0.017368007 0.30843383 -0.21645184 -0.108875975 0.084335454 0.28982833 0.03943064
topic_8 -0.06955797 -0.1289843 -0.00975626 0.07762664 0.081318036 -0.23621999 0.028942224 0.20615213 0.30184412 0.00019484638 0.120697185 0.12247981 0.3299718 0.21687011 0.17117013 -0.22477187
topic_9 -0.06798563 -0.062923044 0.05001646 0.082877 0.03823645 -0.00054357626 0.023176245 -0.13767757 0.15529229 0.13988364 0.15154219 0.062261794 -0.20019192 -0.14305952 0.08156772 -0.071165785
topic_10 0.10312971 -0.028913341 0.09176417 -0.058786746 0.20969962 -0.26446712 0.11400716 -0.045710403 -0.033608284 -0.32608923 0.041059285 -0.07005481 -0.11871437 -0.08731081 -0.047404986 -0.0694399
topic_11 0.065990224 0.06819433 -0.36609188 0.14874987 -0.25524598 -0.14773747 0.14500459 -0.18228737 -0.022930315 -0.059837386 0.08322379 0.16192143 -0.06873615 0.13306884 -0.21732593 -0.1149226
topic_12 0.04591629 -0.3312982 0.09161662 0.12242952 -0.058917124 -0.052990913 0.17914453 0.0051943054 0.018724117 0.0591884 -0.0039200163 0.013252274 0.12118741 -0.08776238 -0.18039869 0.2622162
topic_13 0.15049726 -0.023902707 0.2556904 0.08893984 0.022949716 0.24967372 -0.10528016 -0.3037941 -0.070742644 -0.099088095 0.32798114 -0.081137165 0.19512166 0.21748042 -0.1132887 -0.11262328
topic_14 -0.13857304 -0.10078308 0.07162038 -0.15443157 -0.0052231443 0.07872759 -0.119817786 0.14141448 -0.07110649 -0.1582523 0.14134449 0.41248587 -0.13742821 0.08290842 -0.08764954 0.09067075
topic_15 0.26579738 -0.20925911 0.12739088 -0.104474336 -0.23565854 -0.031453967 -0.124798805 -0.08664023 -0.0037281858 -0.0046334723 -0.24448533 0.13030347 -0.023002932 -0.055895954 0.11085925 -0.21976511
