16 16
topic_0 -0.23865321 0.38908792 -0.2602341 0.27434674 0.13993725 -0.22693513 0.15144475 0.18828285 0.037556104 0.259535 -0.24571925 0.48597533 0.0077932924 0.111870855 -0.50190043 -0.092054084
topic_1 0.35427874 -0.2600822 0.20961256 0.078796774 -0.18055357 0.18713857 0.13250877 -0.28636685 -0.1721908 -0.11302674 0.021998238 -0.36344746 -0.3560735 -0.16253343 0.17738694 0.22243167
topic_2 0.12789904 -0.16101742 0.20353183 -0.09389403 -0.44693205 0.12318769 -0.002206941 -0.2879191 -0.15992717 -0.3179847 -0.014589268 -0.12421117 -0.08751484 -0.1260701 0.2057639 0.30289656
topic_3 0.037517603 -0.05145475 0.47960216 -0.26894158 -0.32937485 0.2989909 -0.100187905 -0.25711504 0.07731781 -0.16640505 0.15444408 -0.44634044 -0.17423785 -0.2146253 0.33637184 0.01066283
topic_4 -0.083962135 0.07691004 -0.10335028 0.10456172 0.17064203 -0.4058156 -0.09710884 0.18988207 0.25202864 0.053601395 -0.31850505 0.25341576 0.1345511 0.3370592 -0.3178389 -0.20751248
topic_5 -0.018584915 -0.28242654 0.33253375 0.003325374 -0.32668555 0.07092593 0.09246265 -0.26621428 -0.39454305 -0.1863315 0.28392226 -0.2214331 -0.10858174 -0.23956504 0.17104042 0.12854896
topic_6 -0.39410335 0.29632884 -0.2711905 0.051317055 0.16334797 -0.3722727 0.14259744 0.2826136 0.2346336 -0.051794335 -0.27060086 0.2773307 0.3396902 0.27948505 -0.059384316 -0.014150703
topic_7 -0.38652295 -0.043730054 -0.37264717 -0.11027419 0.21161772 -0.08611362 -0.26114225 0.38923162 0.10991494 0.4347358 -0.05419989 0.35881162 0.35794494 0.32902834 -0.35477453 -0.273742
topic_8 0.28922847 0.11093188 0.43684527 0.038041178 -0.1646065 0.26713887 0.17648707 0.10071045 -0.16507347 -0.32047886 -0.06689142 -0.47907904 -0.179058 -0.05099379 0.03971508 0.050006352
topic_9 0.044581104 -0.13026205 0.4839031 -0.3202494 -0.10755948 0.099031106 -0.0154044805 -0.17192344 0.06566864 -0.21161838 0.18327317 -0.23003246 -0.05557165 -0.12576868 0.42503875 0.20451508
topic_10 0.037693407 0.3063213 -0.018676579 -0.009981789 0.352706 -0.45560443 0.06337235 0.10869804 0.28952536 0.32502335 -0.2792542 0.06900622 -0.11567909 -0.10067765 -0.346084 -0.23431225
topic_11 -0.074996725 -0.07974118 -0.64740825 -0.025037427 -0.081663765 -0.28845036 0.0020568548 0.029952439 0.15718912 0.16627605 -0.22783786 0.36042932 -0.0641768 0.21367398 -0.15825823 -0.43367523
topic_12 0.33156842 -0.2477009 0.32231495 -0.2696169 -0.21818823 0.4705515 0.11955116 -0.32052118 -0.15467604 0.09631002 0.20976645 -0.38827977 -0.18023822 -0.30806905 0.25965497 0.3512485
topic_13 -0.29374936 0.19739369 -0.20395343 0.4064496 0.38828182 0.11502538 -0.13951859 0.26864648 0.14330606 0.21430203 -0.31493622 0.106059514 0.1582492 0.20633063 -0.16938624 -0.07437449
topic_14 -0.40725464 0.091047175 -0.25315434 0.35778445 0.14002849 -0.43096623 -0.24438295 0.03534645 -0.026151525 0.032654345 -0.15579632 0.12333785 -0.10167374 -0.07931697 -0.2384444 -0.15727633
topic_15 -0.08458141 -0.022459388 -0.35443053 0.14512609 0.25843868 -0.19430992 0.26166448 0.28038156 0.25969532 -0.03778574 -0.10348166 0.27658543 0.028990516 0.352904 -0.44336605 -0.17697382
